{
  "sizes": [
    10,
    5,
    1
  ],
  "layers": [
    {
      "0": {},
      "1": {},
      "2": {},
      "3": {},
      "4": {},
      "5": {},
      "6": {},
      "7": {},
      "8": {},
      "9": {}
    },
    {
      "0": {
        "bias": -1.0817757844924927,
        "weights": {
          "0": 0.2984332740306854,
          "1": 2.0390777587890625,
          "2": 1.2294806241989136,
          "3": -1.0792509317398071,
          "4": -3.8891983032226562,
          "5": 0.147634357213974,
          "6": -0.772621214389801,
          "7": 0.1134437769651413,
          "8": -0.1097380742430687,
          "9": -0.2813829183578491
        }
      },
      "1": {
        "bias": 1.492466688156128,
        "weights": {
          "0": -0.42530307173728943,
          "1": -2.864013433456421,
          "2": -1.7952157258987427,
          "3": 1.409652829170227,
          "4": 5.3439154624938965,
          "5": -0.053155917674303055,
          "6": 0.48871785402297974,
          "7": 0.030350444838404655,
          "8": 0.1795559823513031,
          "9": 0.46274805068969727
        }
      },
      "2": {
        "bias": -1.616102933883667,
        "weights": {
          "0": 0.4611333906650543,
          "1": 3.067061424255371,
          "2": 1.9579267501831055,
          "3": -1.5605562925338745,
          "4": -5.572899341583252,
          "5": 0.05057314783334732,
          "6": -0.6918153762817383,
          "7": 0.016042470932006836,
          "8": -0.4588716924190521,
          "9": -0.4694981276988983
        }
      },
      "3": {
        "bias": -0.9148752093315125,
        "weights": {
          "0": 0.247635617852211,
          "1": 1.7513084411621094,
          "2": 1.0400487184524536,
          "3": -0.9946827292442322,
          "4": -3.2641096115112305,
          "5": 0.11526074260473251,
          "6": -0.40238165855407715,
          "7": -0.10052276402711868,
          "8": -0.4405142068862915,
          "9": -0.29924529790878296
        }
      },
      "4": {
        "bias": -0.03650982677936554,
        "weights": {
          "0": 0.03210015594959259,
          "1": 0.622099757194519,
          "2": -0.0022609613370150328,
          "3": -0.26243695616722107,
          "4": -0.5173988342285156,
          "5": 0.0014378653140738606,
          "6": -0.48147982358932495,
          "7": 0.0240690466016531,
          "8": -0.10052857547998428,
          "9": -0.1573822796344757
        }
      }
    },
    {
      "0": {
        "bias": -2.976516008377075,
        "weights": {
          "0": 4.262762069702148,
          "1": -7.427882671356201,
          "2": 6.572939395904541,
          "3": 3.506598472595215,
          "4": 0.1486666053533554
        }
      }
    }
  ],
  "outputLookup": false,
  "inputLookup": false,
  "activation": "sigmoid",
  "trainOpts": {
    "iterations": 20000,
    "errorThresh": 0.01,
    "log": true,
    "logPeriod": 100,
    "learningRate": 0.01,
    "momentum": 0.1,
    "callbackPeriod": 10
  }
}